{"model_name": "MLP", "mlp_weights": [[[-0.25249737526088817, -0.12458081741356704, -0.45686763154971705, 0.739633476918072, 0.539444162961211, 0.5217399524282625], [0.2487238001804276, -0.17276194243775997, -0.47221813328475715, 0.6787324595580394, 0.4929045077308062, -0.17359883085748123], [0.03070738891926888, 0.29106718716449304, 0.6810029917996246, 0.08786052932724668, 0.64277158979403, 0.19513422995619187]], [[-0.5399526663412668, -0.23678641293396965, -0.263168394756849, -0.3541844957265304, -0.26902222393825004], [0.11442026398404467, 0.104211360286235, -0.39442005179106554, -0.5311686784618281, 0.28298280760708283], [0.6523840390478564, -0.7879057400517192, -0.6872009221584929, -0.4110245440482322, 0.7310827169844388], [-0.3612660468282365, 0.9303087485280144, 0.8616833370328417, -0.6806561052090674, -0.564633152921365], [-0.7298773547931034, 0.7117449753240489, -0.4172776122672466, -0.565125024434743, 0.3520335733544215], [0.2908475137432577, -0.26755170243212156, 0.6793449403670803, -0.03712904927803985, -0.3085963789400849]], [[-0.35611993515377405, 0.8262323493309965, -0.4198263981535483, 0.2810141376482244, 0.14095233310435823], [-0.5428630460273569, -0.7530404326894475, -0.2801415397354589, 0.013023571829556203, -0.21797241489847022], [0.587341675802235, -0.13546744108193992, -0.07532204626741026, -0.4666461078738822, 0.42402568576767774], [-0.13886295102927296, 0.5815935130880897, -0.301199411464333, -0.2971470072471632, 0.18271531492933157], [0.033331210475878045, 0.23394440346577158, 0.657080682772833, -0.06754841314637626, 0.16817770478054478]], [[0.11289313999086442], [0.9290396033806498], [-0.010414670135755092], [-1.0750270215040838], [-0.6091868469399885]]], "mlp_bias": [[-0.7643280339911085, -0.8954195249398667, 0.1521457818091591, -0.4950472242527191, -0.6424106845040458, 0.00044722634550958373], [-0.2153406344999125, -0.10889855610361594, 0.15288750331169304, 0.42329436380823354, -0.30821696264083487], [-0.33435156438011965, -0.40244775897914886, 0.21243994586065146, -0.5505404770607782, -0.6119728569677376], [-0.5229755856813746]], "reconstruct": "y(i+1) = tanh(dot(y(i), mlp_weights(i)) + mlp_bias(i), where i is in {1 to L-1} , y0 is X and L is the number of layers of MLP model (including input and output layers). y(L) = dot(y(L-1), mlp_weight(L-1)) + mlp_bias(L-1), y(L) is the MLP prediction value.", "note": "Since the memory size of arduino are quite small, too much layers or neurons would lead arduino popup failures during run-time. So we suggest the total number of parameter should lower than 250."}