{"model_name": "MLP", "mlp_weights": [[[0.6517242733505251, -0.6201355925775924, -0.3820579343868037, -0.4123375306105492, 0.2585774441003614, -0.20741009474594777], [0.7115762731052865, 0.5600963534888129, 1.0134310424114676, 0.5577685943281626, -0.5670432053760801, -1.4230882631785533], [-0.30917682122792617, 0.4912506840985476, -0.09497367784972834, 0.08439705750448223, -0.6851333053084541, 0.12709251941390973], [0.8167723095226556, 0.5958420058636952, -0.5146334043995436, 0.7708049859783426, -0.4259615000070161, 0.5543805526940505]], [[-0.5209655084125062, -0.23062936055291847, -0.12748745046771118, -0.5911549897890315, -0.21723900954206918], [-0.7648538271498289, 0.7050563792924915, -0.3872842407095758, -0.8158667991514668, -0.08579797458793235], [-0.5623345520768925, -0.570263330097793, 0.6427612726918234, 0.3448731905102673, -0.7141688553238043], [-0.26165653247308795, 0.25589389549890124, 0.30379380564966063, -0.5271031162938924, 0.8008641149141146], [0.21093545625802906, 0.11631370749152999, 0.41263996673890524, 0.05631882682063663, 0.5171080207880235], [-0.038958910588381204, 0.7581189527519727, 0.18305830141323431, 0.35510253093437766, 0.35235942260376296]], [[-0.2434242205088592, 0.4049729111488809, -0.5084474830212111, -0.1889288788805393, 0.3096125885685848], [0.3764534567755785, -0.43336063662158536, 0.5044064612162613, -0.8523819779594254, -0.5317579472273084], [-0.5178522089268106, 0.857120900734759, 0.06007713554211441, -0.21977913569031882, 0.02919753973909548], [0.5992138429984017, -0.3908804394107827, 0.12236535015896659, 0.5657395167458804, 0.8085091192750858], [0.6817783951010744, -0.36391850873412956, 0.622658651943768, -0.5095864681565151, -0.6680881898786516]], [[-0.451393351057239], [-0.5114185999917343], [0.24526296320453592], [-0.978195907808279], [-0.6951833235621286]]], "mlp_bias": [[-0.313085833405492, 0.016978081355763567, -0.606165586996944, -0.40120202006139394, -0.01362090320468269, 0.28751417045986], [-0.17256004951378862, -0.5694898810788538, -0.3039063233215854, -0.21941176588365843, -0.3308028922953784], [0.5952198409429751, -0.2609401545714402, 0.034011504713804645, -0.6663101706876244, 0.30347257694174073], [-0.5271858420704181]], "reconstruct": "y(i+1) = tanh(dot(y(i), mlp_weights(i)) + mlp_bias(i), where i is in {1 to L-1} , y0 is X and L is the number of layers of MLP model (including input and output layers). y(L) = dot(y(L-1), mlp_weight(L-1)) + mlp_bias(L-1), y(L) is the MLP prediction value.", "note": "Since the memory size of arduino are quite small, too much layers or neurons would lead arduino popup failures during run-time. So we suggest the total number of parameter should lower than 250."}