/* This is only a demo of params.  You have to retrain it and generate the file with gen-param-h.py */

#ifndef GY33_PARAM_H
#include <MatrixMath.h>

const mtx_type W0[3][10] = {
  { -0.20929566025733948, -0.6766549944877625, 0.28235679864883423, 0.11530082672834396, -0.004376288503408432, -0.483889102935791, -0.5911141037940979, 0.13135135173797607, -0.6633700132369995, 0.055993739515542984},
  { -0.4278852939605713, 0.37481221556663513, 0.32588163018226624, 0.5049226880073547, 0.02558179199695587, -0.14204147458076477, 0.532540500164032, -0.06259521842002869, 0.6500462293624878, 0.18560469150543213},
  {0.20542994141578674, 0.5567881464958191, -0.5565193295478821, 0.4127236008644104, 0.6006258130073547, -0.43611568212509155, 0.3360759913921356, -0.6540285348892212, -0.24868567287921906, -0.6060841083526611},
};
const mtx_type W1[10] = {0.0325726717710495, 0.033291809260845184, -0.031207405030727386, 0.034018609672784805, -0.030018875375390053, -0.03704613074660301, -0.03394220396876335, -0.03440716490149498, 0.03431149199604988, -0.03619292378425598};
const mtx_type W2[10][5] = {
  { -0.5878336429595947, 0.4377111792564392, 0.37245234847068787, 0.41963058710098267, -0.06180320307612419},
  { -0.5639614462852478, 0.35102078318595886, -0.30556005239486694, 0.234860360622406, -0.32715868949890137},
  {0.448110431432724, -0.4270017147064209, 0.022322939708828926, 0.3844529390335083, -0.07250748574733734},
  { -0.39585843682289124, 0.6229010224342346, 0.1816588193178177, 0.3318972885608673, 0.2766556739807129},
  {0.46998706459999084, -0.020653095096349716, -0.030269714072346687, 0.2277655452489853, 0.26933586597442627},
  {0.06222856044769287, 0.5216116309165955, 0.4222915470600128, -0.4069313108921051, -0.3953999876976013},
  {0.27751150727272034, 0.41810426115989685, -0.17651620507240295, -0.3037661015987396, 0.1662236601114273},
  {0.2595742344856262, 0.08619028329849243, 0.4681132435798645, 0.32878878712654114, -0.4783985912799835},
  { -0.1341543346643448, -0.29618072509765625, -0.5900686383247375, 0.08893505483865738, -0.13017477095127106},
  {0.12944139540195465, -0.22059373557567596, -0.021706070750951767, -0.4709583520889282, 0.16700315475463867},
};
const mtx_type W3[5] = { -0.032660167664289474, 0.027226179838180542, -0.03456001728773117, 0.03453792631626129, 0.03415507450699806};
const mtx_type W4[5][3] = {
  { -0.7330528497695923, 0.9175930619239807, -0.9074866771697998},
  {0.703475832939148, -0.2566756010055542, -0.7220872044563293},
  {0.052744798362255096, -0.4234434962272644, -0.7633193731307983},
  {0.2235185205936432, -0.5235835313796997, 0.4654931128025055},
  {0.8346284031867981, -0.4115172326564789, -0.24206043779850006},
};
const mtx_type W5[3] = {0.03247545659542084, -0.04072132334113121, 0.03347358480095863};
const mtx_type W6[3][1] = {
  {1.2036306858062744},
  { -0.06278471648693085},
  {0.8365564346313477},
};
const mtx_type W7[1] = {0.033905260264873505};
#endif	// GY33_PARAM_H
