
#ifndef GY33_PARAM_H
#define MODEL_NAME "MLP"
#define MLP 1
#include <MatrixMath.h>
mtx_type X0[3][6] = {
{-0.325837217903527, -0.14810699277826847, -0.3876620530096467, 0.6876014497756443, 0.42595700343424187, 0.6817285745732765},
{0.09859164231424093, -0.28026860980886137, -0.3322969563560957, 0.5512510318675629, 0.2727038468446848, 0.11980572360321429},
{0.002862345196348851, 0.31695225109215813, 0.7099454012398928, 0.07924202492639959, 0.5968785428712196, 0.26771834763142804},
};
mtx_type X1[6][5] = {
{-0.6346034649077616, -0.2243564118909208, -0.2456121155874822, -0.3467065372495562, -0.26123478425340063},
{0.0030432881130715806, 0.12249659140898722, -0.3743496804182747, -0.5262943444620454, 0.28991139992254134},
{0.5013824241982832, -0.6957688830421848, -0.6766952387021739, -0.480055434372097, 0.6940467688072475},
{0.3397388102293024, 0.46884850610882745, 0.647121823966513, -0.3586418240571546, -0.36235974132949544},
{-0.60482942419529, 0.6321970819977322, -0.42571932279508834, -0.5041097667729639, 0.3855013073727918},
{0.40515590667260004, -0.29693970148916077, 0.6588241705759429, -0.03224493340061285, -0.3093568056300666},
};
mtx_type X2[5][5] = {
{-0.3996125057914183, 0.7940821540813354, -0.40958245887220524, 0.3296449703665214, 0.19058628790290089},
{-0.4564323145828354, -0.6731586564112884, -0.3091952518900893, -0.07741576263381655, -0.31569526623670285},
{0.5682042910803742, -0.13821788714241054, -0.07205692944342225, -0.4412680446825515, 0.4463841434987389},
{-0.17834130503080456, 0.5581548814080118, -0.29167924516500965, -0.25110052787620757, 0.22830239015637324},
{0.04052587332169281, 0.2260630837162638, 0.6580229680517694, -0.079993119180018, 0.15983467580013627},
};
mtx_type X3[5][1] = {
{0.12639196750870277},
{0.8109170059835971},
{0.0026603480972777075},
{-1.0323256510425562},
{-0.6358040438065343},
};
mtx_type W0[6] = {-0.7880410791413626, -0.865894048483694, 0.17726671335665123, -0.4998572413069294, -0.6821021572570501, 0.06471947482805165};
mtx_type W1[5] = {-0.12399531152455902, -0.12023917010969695, 0.1363203991386401, 0.41556890568374383, -0.3160633987438963};
mtx_type W2[5] = {-0.36740704033533844, -0.4201973068455648, 0.22001563269382152, -0.5112023083056022, -0.5736368636826544};
mtx_type W3[1] = {-0.5629520437323424};
#define MAX_DIM 6
#endif	// GY33_PARAM_H
